<?xml version="1.0"?>
<opencv_storage>
<!-- Created using Computer Vision System Toolbox(tm) for MATLAB(R) -->
<!-- Version 9.1.0.441655 (R2016b) -->
<!-- Compatible with OpenCV 2.4 -->
<cascade>
  <stageType>BOOST</stageType>
  <featureType>HAAR</featureType>
  <height>32</height>
  <width>61</width>
  <stageParams>
    <boostType>GAB</boostType>
    <minHitRate>9.9500000476837158e-01</minHitRate>
    <maxFalseAlarm>9.9999997764825821e-03</maxFalseAlarm>
    <weightTrimRate>9.4999999999999996e-01</weightTrimRate>
    <maxDepth>1</maxDepth>
    <maxWeakCount>100</maxWeakCount></stageParams>
  <featureParams>
    <maxCatCount>0</maxCatCount>
    <featSize>1</featSize>
    <mode>BASIC</mode></featureParams>
  <stageNum>5</stageNum>
  <stages>
    <!-- stage 0 -->
    <_>
      <maxWeakCount>6</maxWeakCount>
      <stageThreshold>-4.3171748518943787e-02</stageThreshold>
      <weakClassifiers>
        <_>
          <internalNodes>
            0 -1 6 -8.1712737679481506e-02</internalNodes>
          <leafValues>
            6.7272728681564331e-01 -8.8118809461593628e-01</leafValues></_>
        <_>
          <internalNodes>
            0 -1 30 -2.2569619119167328e-02</internalNodes>
          <leafValues>
            9.3246483802795410e-01 -5.9530532360076904e-01</leafValues></_>
        <_>
          <internalNodes>
            0 -1 25 7.7959330519661307e-04</internalNodes>
          <leafValues>
            -5.5902171134948730e-01 8.2693892717361450e-01</leafValues></_>
        <_>
          <internalNodes>
            0 -1 22 -2.9650915414094925e-02</internalNodes>
          <leafValues>
            6.7411547899246216e-01 -6.8861383199691772e-01</leafValues></_>
        <_>
          <internalNodes>
            0 -1 11 -3.1752012670040131e-02</internalNodes>
          <leafValues>
            -1. 5.5602949857711792e-01</leafValues></_>
        <_>
          <internalNodes>
            0 -1 14 -3.8320652674883604e-03</internalNodes>
          <leafValues>
            7.9414379596710205e-01 -6.2376219034194946e-01</leafValues></_></weakClassifiers></_>
    <!-- stage 1 -->
    <_>
      <maxWeakCount>6</maxWeakCount>
      <stageThreshold>2.5224196910858154e-01</stageThreshold>
      <weakClassifiers>
        <_>
          <internalNodes>
            0 -1 2 1.0247360914945602e-02</internalNodes>
          <leafValues>
            -7.5438594818115234e-01 8.0952382087707520e-01</leafValues></_>
        <_>
          <internalNodes>
            0 -1 29 4.5022945851087570e-03</internalNodes>
          <leafValues>
            -6.5137535333633423e-01 6.0874581336975098e-01</leafValues></_>
        <_>
          <internalNodes>
            0 -1 12 2.2501470521092415e-03</internalNodes>
          <leafValues>
            -4.9673512578010559e-01 8.5106915235519409e-01</leafValues></_>
        <_>
          <internalNodes>
            0 -1 8 5.1646932959556580e-02</internalNodes>
          <leafValues>
            -5.5059742927551270e-01 8.1282460689544678e-01</leafValues></_>
        <_>
          <internalNodes>
            0 -1 24 -1.7098332755267620e-03</internalNodes>
          <leafValues>
            9.0197825431823730e-01 -4.3131238222122192e-01</leafValues></_>
        <_>
          <internalNodes>
            0 -1 28 2.9032256861682981e-05</internalNodes>
          <leafValues>
            5.4323637485504150e-01 -8.6760419607162476e-01</leafValues></_></weakClassifiers></_>
    <!-- stage 2 -->
    <_>
      <maxWeakCount>5</maxWeakCount>
      <stageThreshold>2.2705359756946564e-01</stageThreshold>
      <weakClassifiers>
        <_>
          <internalNodes>
            0 -1 7 -7.5093962252140045e-02</internalNodes>
          <leafValues>
            6.6666668653488159e-01 -8.6274510622024536e-01</leafValues></_>
        <_>
          <internalNodes>
            0 -1 0 1.5289111994206905e-02</internalNodes>
          <leafValues>
            -5.7312119007110596e-01 9.6568012237548828e-01</leafValues></_>
        <_>
          <internalNodes>
            0 -1 28 -8.3672188338823617e-05</internalNodes>
          <leafValues>
            -9.8185431957244873e-01 5.0537598133087158e-01</leafValues></_>
        <_>
          <internalNodes>
            0 -1 19 8.5324572864919901e-04</internalNodes>
          <leafValues>
            4.0599602460861206e-01 -8.8972175121307373e-01</leafValues></_>
        <_>
          <internalNodes>
            0 -1 5 -6.4218337647616863e-03</internalNodes>
          <leafValues>
            7.5154787302017212e-01 -6.2647134065628052e-01</leafValues></_></weakClassifiers></_>
    <!-- stage 3 -->
    <_>
      <maxWeakCount>8</maxWeakCount>
      <stageThreshold>2.6771098375320435e-01</stageThreshold>
      <weakClassifiers>
        <_>
          <internalNodes>
            0 -1 23 9.6048624254763126e-04</internalNodes>
          <leafValues>
            -6.1904764175415039e-01 8.6666667461395264e-01</leafValues></_>
        <_>
          <internalNodes>
            0 -1 31 -2.9794136062264442e-03</internalNodes>
          <leafValues>
            5.9012901782989502e-01 -5.9001803398132324e-01</leafValues></_>
        <_>
          <internalNodes>
            0 -1 26 7.4453692650422454e-04</internalNodes>
          <leafValues>
            -5.7323628664016724e-01 7.7961587905883789e-01</leafValues></_>
        <_>
          <internalNodes>
            0 -1 3 -2.2561665624380112e-02</internalNodes>
          <leafValues>
            -9.5390534400939941e-01 4.4251310825347900e-01</leafValues></_>
        <_>
          <internalNodes>
            0 -1 20 -1.1297799646854401e-03</internalNodes>
          <leafValues>
            9.1052865982055664e-01 -4.7091707587242126e-01</leafValues></_>
        <_>
          <internalNodes>
            0 -1 16 1.6076441388577223e-03</internalNodes>
          <leafValues>
            -3.8164168596267700e-01 9.3703752756118774e-01</leafValues></_>
        <_>
          <internalNodes>
            0 -1 21 3.9694074075669050e-04</internalNodes>
          <leafValues>
            5.6340330839157104e-01 -8.4676337242126465e-01</leafValues></_>
        <_>
          <internalNodes>
            0 -1 13 2.3721015895716846e-04</internalNodes>
          <leafValues>
            -6.3634395599365234e-01 6.3038092851638794e-01</leafValues></_></weakClassifiers></_>
    <!-- stage 4 -->
    <_>
      <maxWeakCount>8</maxWeakCount>
      <stageThreshold>-1.1479557305574417e-01</stageThreshold>
      <weakClassifiers>
        <_>
          <internalNodes>
            0 -1 1 3.6899283528327942e-02</internalNodes>
          <leafValues>
            -7.3831772804260254e-01 5.5102038383483887e-01</leafValues></_>
        <_>
          <internalNodes>
            0 -1 18 -4.0667727589607239e-03</internalNodes>
          <leafValues>
            -8.8631761074066162e-01 3.1836616992950439e-01</leafValues></_>
        <_>
          <internalNodes>
            0 -1 17 1.4885817654430866e-03</internalNodes>
          <leafValues>
            -4.5206069946289062e-01 9.0033161640167236e-01</leafValues></_>
        <_>
          <internalNodes>
            0 -1 15 2.0831350237131119e-02</internalNodes>
          <leafValues>
            4.3020007014274597e-01 -1.</leafValues></_>
        <_>
          <internalNodes>
            0 -1 27 -4.5182830654084682e-03</internalNodes>
          <leafValues>
            8.2683348655700684e-01 -5.1956421136856079e-01</leafValues></_>
        <_>
          <internalNodes>
            0 -1 4 7.7600060030817986e-03</internalNodes>
          <leafValues>
            -3.9479508996009827e-01 8.8740110397338867e-01</leafValues></_>
        <_>
          <internalNodes>
            0 -1 9 5.3749361541122198e-04</internalNodes>
          <leafValues>
            -5.5150198936462402e-01 7.5453484058380127e-01</leafValues></_>
        <_>
          <internalNodes>
            0 -1 10 -3.6450062179937959e-04</internalNodes>
          <leafValues>
            -9.0843552350997925e-01 4.8684111237525940e-01</leafValues></_></weakClassifiers></_></stages>
  <features>
    <_>
      <rects>
        <_>
          0 0 25 4 -1.</_>
        <_>
          0 2 25 2 2.</_></rects>
      <tilted>0</tilted></_>
    <_>
      <rects>
        <_>
          0 8 14 21 -1.</_>
        <_>
          7 8 7 21 2.</_></rects>
      <tilted>0</tilted></_>
    <_>
      <rects>
        <_>
          0 12 8 8 -1.</_>
        <_>
          4 12 4 8 2.</_></rects>
      <tilted>0</tilted></_>
    <_>
      <rects>
        <_>
          1 17 40 10 -1.</_>
        <_>
          21 17 20 10 2.</_></rects>
      <tilted>0</tilted></_>
    <_>
      <rects>
        <_>
          2 16 8 8 -1.</_>
        <_>
          6 16 4 8 2.</_></rects>
      <tilted>0</tilted></_>
    <_>
      <rects>
        <_>
          7 23 22 4 -1.</_>
        <_>
          7 25 22 2 2.</_></rects>
      <tilted>0</tilted></_>
    <_>
      <rects>
        <_>
          8 20 50 12 -1.</_>
        <_>
          8 26 50 6 2.</_></rects>
      <tilted>0</tilted></_>
    <_>
      <rects>
        <_>
          9 20 41 12 -1.</_>
        <_>
          9 26 41 6 2.</_></rects>
      <tilted>0</tilted></_>
    <_>
      <rects>
        <_>
          11 2 29 12 -1.</_>
        <_>
          11 8 29 6 2.</_></rects>
      <tilted>0</tilted></_>
    <_>
      <rects>
        <_>
          16 0 1 4 -1.</_>
        <_>
          16 2 1 2 2.</_></rects>
      <tilted>0</tilted></_>
    <_>
      <rects>
        <_>
          16 1 12 1 -1.</_>
        <_>
          20 1 4 1 3.</_></rects>
      <tilted>0</tilted></_>
    <_>
      <rects>
        <_>
          16 2 45 21 -1.</_>
        <_>
          16 9 45 7 3.</_></rects>
      <tilted>0</tilted></_>
    <_>
      <rects>
        <_>
          16 11 3 9 -1.</_>
        <_>
          17 11 1 9 3.</_></rects>
      <tilted>0</tilted></_>
    <_>
      <rects>
        <_>
          19 10 3 5 -1.</_>
        <_>
          20 10 1 5 3.</_></rects>
      <tilted>0</tilted></_>
    <_>
      <rects>
        <_>
          19 15 9 5 -1.</_>
        <_>
          22 15 3 5 3.</_></rects>
      <tilted>0</tilted></_>
    <_>
      <rects>
        <_>
          20 7 24 16 -1.</_>
        <_>
          20 7 12 8 2.</_>
        <_>
          32 15 12 8 2.</_></rects>
      <tilted>0</tilted></_>
    <_>
      <rects>
        <_>
          20 15 3 8 -1.</_>
        <_>
          21 15 1 8 3.</_></rects>
      <tilted>0</tilted></_>
    <_>
      <rects>
        <_>
          22 14 3 9 -1.</_>
        <_>
          23 14 1 9 3.</_></rects>
      <tilted>0</tilted></_>
    <_>
      <rects>
        <_>
          23 27 21 4 -1.</_>
        <_>
          30 27 7 4 3.</_></rects>
      <tilted>0</tilted></_>
    <_>
      <rects>
        <_>
          24 29 9 2 -1.</_>
        <_>
          27 29 3 2 3.</_></rects>
      <tilted>0</tilted></_>
    <_>
      <rects>
        <_>
          27 4 3 18 -1.</_>
        <_>
          28 4 1 18 3.</_></rects>
      <tilted>0</tilted></_>
    <_>
      <rects>
        <_>
          27 28 6 2 -1.</_>
        <_>
          30 28 3 2 2.</_></rects>
      <tilted>0</tilted></_>
    <_>
      <rects>
        <_>
          30 20 18 12 -1.</_>
        <_>
          30 26 18 6 2.</_></rects>
      <tilted>0</tilted></_>
    <_>
      <rects>
        <_>
          33 15 6 1 -1.</_>
        <_>
          35 15 2 1 3.</_></rects>
      <tilted>0</tilted></_>
    <_>
      <rects>
        <_>
          34 13 6 3 -1.</_>
        <_>
          36 13 2 3 3.</_></rects>
      <tilted>0</tilted></_>
    <_>
      <rects>
        <_>
          41 14 3 3 -1.</_>
        <_>
          42 14 1 3 3.</_></rects>
      <tilted>0</tilted></_>
    <_>
      <rects>
        <_>
          41 22 5 3 -1.</_>
        <_>
          41 23 5 1 3.</_></rects>
      <tilted>0</tilted></_>
    <_>
      <rects>
        <_>
          41 29 15 3 -1.</_>
        <_>
          41 30 15 1 3.</_></rects>
      <tilted>0</tilted></_>
    <_>
      <rects>
        <_>
          44 0 3 1 -1.</_>
        <_>
          45 0 1 1 3.</_></rects>
      <tilted>0</tilted></_>
    <_>
      <rects>
        <_>
          46 13 15 6 -1.</_>
        <_>
          51 13 5 6 3.</_></rects>
      <tilted>0</tilted></_>
    <_>
      <rects>
        <_>
          53 2 8 24 -1.</_>
        <_>
          57 2 4 24 2.</_></rects>
      <tilted>0</tilted></_>
    <_>
      <rects>
        <_>
          53 23 8 2 -1.</_>
        <_>
          57 23 4 2 2.</_></rects>
      <tilted>0</tilted></_></features></cascade>
</opencv_storage>
